"0","cart_model$finalModel"
"1","n="
"1"," "
"1","572"
"1"," "
"1","

"
"1","node), split, n, loss, yval, (yprob)
"
"1","      * denotes terminal node

"
"1","1) root 572 232 died (0.5944056 0.4055944)  "
"1","
"
"1","  2) Sexmale>=0.5 365  76 died (0.7917808 0.2082192)  "
"1","
"
"1","    4) Age>=6.5 343  61 died (0.8221574 0.1778426) *"
"1","
"
"1","    5) Age< 6.5 22   7 survived (0.3181818 0.6818182) *"
"1","
"
"1","  3) Sexmale< 0.5 207  51 survived (0.2463768 0.7536232) *"
"1","
"
